384
0.33021715
1.02668190
0.25251380
0.23140068
0.43321040
0.25140500
0.49519965
0.21818128
0.49650422
0.24204035
1.02670014
0.98687488
0.92028993
0.18951903
0.25354233
0.25071251
0.30211535
0.98602861
0.20881285
0.92711687
0.15185612
0.72852343
0.67400283
0.32520697
0.20795588
0.18678769
0.64568263
0.32000336
0.24390818
0.53498417
0.83003986
0.97650188
0.90954095
0.30772671
0.83143550
0.21352585
0.88940728
0.90309501
0.02839651
0.42049611
0.81456023
0.19010021
0.88499773
0.27404729
0.57180333
0.20828806
0.18738133
0.24728747
0.20795819
0.20431909
0.59412903
0.63459182
0.21442008
0.32673603
0.85276127
0.90561849
1.06443250
0.46305498
0.20232673
0.71117985
0.21880515
0.96342349
0.63815182
0.70719731
0.67313004
0.24446717
1.00872958
0.66874647
0.84097892
0.81260014
0.39943603
0.85339797
0.21851058
0.25556970
0.31512851
0.35858193
0.21381697
0.31251520
0.16047166
1.12227583
0.28989297
0.51435637
0.44506866
0.65426779
0.30623946
0.72274536
0.40628707
0.58594781
0.98036832
0.86097294
0.84289187
0.90808839
0.78633112
0.32521755
1.07505691
0.69430625
0.66933000
0.99461615
0.24168083
0.17615046
0.96604770
0.70454627
0.23080580
0.24432626
0.23549260
0.82383484
0.32135019
0.86729008
0.80402058
0.72982508
0.32395390
0.25096765
0.84882122
0.72419786
0.67637795
0.64289021
0.66458851
0.86936623
0.31677899
0.33210960
0.20365138
0.22651607
0.39729089
0.33796844
0.25599700
0.24117802
0.25570831
0.63626033
0.70531964
0.47195378
0.07358208
0.79235715
0.82313395
0.45399037
0.22368059
0.41597936
0.28024420
0.93348402
0.62027240
0.33719966
0.37719083
0.54748642
0.28827083
0.61735517
0.24541138
0.69750887
0.48389572
0.34763068
0.68288296
0.65872413
0.52769029
0.59091854
0.94476157
0.82799762
0.70840383
0.18392611
0.80080450
0.35245326
0.32069820
0.13766550
0.99829215
0.35816824
0.34429428
0.18340693
0.25376666
1.10435915
0.23697853
0.21901837
0.24245562
0.31968960
0.28517190
0.31606793
0.15534937
0.54013300
0.27079153
0.19788982
0.23829629
0.23841240
0.20126705
1.12217450
0.22050643
0.82371104
0.39386287
0.83819914
0.19707282
0.53145021
0.22217825
0.70331687
-0.00016869
0.19507997
0.47601137
0.76056784
0.60177296
0.11851446
0.20080802
0.20129791
0.21129900
0.27683917
0.97634560
0.35805690
0.28949314
0.73585838
1.09879303
0.24167606
0.96851987
0.27700964
0.81413388
0.69981402
0.25808394
0.82424992
0.15835378
0.95637977
0.34435874
0.29351234
0.25584254
0.24752039
0.56797582
0.43877840
0.89664876
0.38222972
0.48456889
0.28468570
0.31895509
0.86425644
0.67980587
0.82625055
0.23306413
0.69127089
0.22109596
0.31939307
0.19870715
0.27948618
0.20400351
0.91211927
0.26293537
0.33963108
0.27641279
0.31959426
1.02039552
0.92224157
0.20903234
0.54965299
0.43338850
0.36648160
0.18549345
0.19222534
0.79328948
0.84934050
0.29299098
0.26706901
0.69259328
0.80249804
0.21427599
0.24085116
0.56612498
0.26327291
0.32179055
0.20060726
0.71811455
0.98574489
0.95946407
0.47711644
0.22590156
0.56516695
0.26837459
0.92042947
0.19154897
0.76784867
0.97091097
0.24961275
0.65747619
1.05698729
0.52849084
0.65155768
0.65811759
0.71758199
0.79195035
0.95128208
0.24863003
0.81422639
0.36899421
0.65910548
0.25875255
0.45980418
0.98907077
0.77894843
0.34026983
1.04184544
0.98948181
0.18624978
0.22082110
0.78078842
0.60410184
0.60686767
0.47758475
0.53070343
0.16909602
0.18175213
0.90080017
0.20794527
0.39532569
0.46145743
0.33733946
0.82842046
0.22098829
0.33106115
0.55354989
0.23637930
0.25178340
0.22984219
0.18235983
0.90924233
0.65170312
0.22412524
0.94277912
0.17356908
0.26882035
0.85532320
0.25596297
0.95437354
0.28169358
0.87819260
0.96242309
0.17260766
0.99128234
0.72254485
0.19199117
0.33203900
0.91580784
0.27878675
0.46992603
0.45443612
0.63588983
0.22603375
0.51338494
0.17836656
1.01209128
0.44913673
0.71577054
0.18030961
0.97417998
0.26870808
0.19637862
0.97454804
0.25898033
0.35540423
0.87024266
0.57008177
0.93689609
0.98517370
0.23039444
0.91849566
0.21553347
0.56215918
0.18247832
0.36210644
0.36584178
0.23138690
0.39659059
0.94785613
0.91112900
0.21176198
1.00087368
0.22722070
0.78873044
0.21468015
0.27854285
0.42019981
0.31458062
0.71259654
0.93928313
0.96142429
0.22468483
0.77100730
0.47517008
0.65354270
0.89751267
0.84676200
0.19561671
0.88816583
0.24562219
0.62377954
0.86789298
0.31661904
0.00716559
0.04456942
-0.10964843
0.33654183
0.32297009
0.19783734
-0.15479523
0.24342619
-0.01666754
0.39801511
0.04418094
-0.00379912
0.00539131
0.20244555
0.49161133
-0.20310928
0.10615935
-0.14997628
-0.21886310
-0.00166717
0.09665074
-0.16175979
-0.00804267
0.08345746
0.09376324
0.06147452
0.14183104
-0.78493458
-0.15076132
0.05060797
0.00120908
0.05049933
-0.04489693
-0.22279383
-0.01220865
0.40100470
0.00361637
0.04352438
0.01563530
-0.17740041
0.09685878
-0.05987884
-0.01190196
-0.57239938
-0.05466453
-0.06972381
0.12049249
-0.05373779
-0.03390210
-0.19936872
-0.12041942
0.05445158
-0.43256596
-0.35195011
-0.06361914
-0.10349403
0.00539667
-0.19735751
-0.10597556
-0.34542444
0.05600019
0.04248144
0.11162499
-0.36087275
-0.05117569
0.27022949
-0.07119503
0.15268287
0.14033809
-0.01564755
-0.34911016
0.27044716
0.31803709
0.31088442
0.15942335
-0.33039147
-0.33472946
0.04316172
0.03180864
0.05025570
-0.29022229
-0.03733540
0.01941219
0.02646011
0.38796815
-0.13429189
0.03650840
-0.26119626
-0.14845738
-0.06905247
-0.07384143
-0.12274238
-0.00568547
-0.04279667
-0.01755571
0.08004110
-0.26597521
-0.12361736
-0.03621682
-0.03975935
-0.06176441
-0.00091685
-0.37029967
0.20949267
0.27733749
-0.13819413
0.03143233
-0.21842706
0.18215537
0.00710570
-0.19132118
0.19367065
0.17051017
-0.15680380
0.09990237
-0.02982878
-0.13435853
0.00507353
-0.54619378
-0.15053071
0.21851654
0.54071850
-0.06562981
-0.18973362
0.02971625
0.08823866
0.20545945
-0.23544298
0.16442573
-0.30048725
0.02300105
-0.15439710
0.14899886
-0.00844215
0.23452142
0.03512340
-0.34905878
-0.10520487
0.23751540
0.01914508
-0.09724642
-0.00648222
-0.38506600
0.16688952
-0.03133670
-0.11098626
-0.05101003
-0.00591596
-0.34841466
0.33234584
-0.26577654
-0.08155730
-0.00185361
-0.06736830
0.04600763
0.07435495
0.13817400
-0.05074717
0.15758093
-0.06331842
0.11577502
-0.10149069
-0.37271234
-0.08195112
0.04601676
0.00818791
-0.26323909
-0.24142206
-0.14713804
0.24747814
-0.19536582
0.01160370
-0.00989191
0.23016028
-0.01724196
-0.09722510
-0.08480036
0.03513113
0.03622456
0.03225607
0.25784528
0.06720172
0.46048099
0.15907249
-0.05717664
0.04474473
-0.02244325
0.11139128
0.00017345
0.15664160
0.10598916
0.14326888
0.06163643
0.07619297
0.09217320
-0.01232213
-0.19530581
0.31929314
-0.09138418
0.11434321
-0.04452592
-0.10575468
0.02776292
0.24309444
0.05538681
0.01780392
0.08470158
-0.06140308
0.20080258
0.06212623
-0.01941275
0.02787741
-0.05223318
-0.00813015
0.10200022
0.07953025
-0.10779630
-0.06561916
-0.04017876
-0.32761738
0.03787345
-0.04261340
-0.09711376
0.07967532
0.14558636
0.14379703
0.36247164
0.47268343
0.03260887
0.27730009
0.05823131
0.05587661
-0.34043255
-0.23222835
0.09948774
0.14822952
0.02281716
-0.16367559
0.00695846
0.08716084
-0.03330916
0.17565124
-0.01797119
0.23382080
-0.13365109
0.02736483
-0.02848154
-0.05894233
0.28056860
-0.48823699
-0.27660576
-0.05562027
0.17706138
0.41401073
0.00758915
0.03414387
-0.52103102
-0.02018549
0.04349157
-0.10547773
0.08022290
-0.30460230
-0.20009246
-0.23179734
-0.06646884
-0.19388348
0.06127148
-0.13678528
0.11369696
0.26910639
0.06799418
0.00374845
-0.01082076
0.33966720
0.27990380
-0.08347884
-0.07829708
-0.01181445
-0.26106155
-0.06504440
-0.00625936
-0.22529097
0.01120850
-0.01584109
0.02904398
0.11233974
0.14671655
-0.03249074
0.11210466
0.27104005
-0.09096842
0.02058843
-0.12822835
0.12777531
-0.03499239
0.11365399
0.07505900
-0.08749649
0.17477345
0.03178465
-0.39480892
-0.22189000
-0.01425823
-0.00208704
0.03774964
0.00214372
-0.06403690
-0.28929552
-0.27220926
0.12110545
-0.10854081
0.16662228
-0.14576796
-0.11316276
-0.03649780
0.01887151
-0.05895123
0.03340428
-0.08632537
-0.10980191
-0.15595889
0.01963175
0.06253004
-0.12190369
-0.15341757
0.09960490
-0.02313851
0.07333943
-0.02629927
-0.12585998
0.32879558
0.35799372
0.04234037
0.01275313
-0.16024539
-0.20146313
-0.01351107
0.45328790
-0.04151871
0.06361222
-0.10511479
-0.00121348
-0.18788679
0.06896973
-0.09154773
-0.20812768
0.15073551
-0.03596228
0.08668189
0.18648446
-0.32954177
-0.11153740
-0.13153537
-0.17340644
-0.10716348
0.46761024
0.11528460
0.37266269
-0.06522889
-0.03609627
0.04620115
-0.04989120
-0.11564939
0.00120325
-0.03663722
0.27144498
-0.05269176
0.18963675
0.06985065
0.11269601
-0.12306646
-0.00545332
-0.04731935
0.02792960
-0.33932140
-0.08190187
-0.10065923
0.08163717
0.02455644
0.07980329
0.02164355
-0.05808789
0.08025607
-0.07935244
